#MUTATION	MAPK_SIGNALING_PATHWAY	ERBB_SIGNALING_PATHWAY	REGULATION_OF_ACTIN_CYTOSKELETON	PATHWAYS_IN_CANCER	FOCAL_ADHESION	T_CELL_RECEPTOR_SIGNALING_PATHWAY	NEUROTROPHIN_SIGNALING_PATHWAY	CHEMOKINE_SIGNALING_PATHWAY	GNRH_SIGNALING_PATHWAY	OOCYTE_MEIOSIS	RENAL_CELL_CARCINOMA	FC_GAMMA_R_MEDIATED_PHAGOCYTOSIS	ENDOMETRIAL_CANCER	AXON_GUIDANCE	INSULIN_SIGNALING_PATHWAY	NATURAL_KILLER_CELL_MEDIATED_CYTOTOXICITY	FC_EPSILON_RI_SIGNALING_PATHWAY	LONG_TERM_POTENTIATION	B_CELL_RECEPTOR_SIGNALING_PATHWAY	TOLL_LIKE_RECEPTOR_SIGNALING_PATHWAY	ADHERENS_JUNCTION	GLIOMA	CELL_CYCLE	PROSTATE_CANCER	PROGESTERONE_MEDIATED_OOCYTE_MATURATION	WNT_SIGNALING_PATHWAY	BLADDER_CANCER	VEGF_SIGNALING_PATHWAY	CHRONIC_MYELOID_LEUKEMIA	CALCIUM_SIGNALING_PATHWAY	MELANOMA	NON_SMALL_CELL_LUNG_CANCER	TIGHT_JUNCTION	VASCULAR_SMOOTH_MUSCLE_CONTRACTION	JAK_STAT_SIGNALING_PATHWAY	PANCREATIC_CANCER	ENDOCYTOSIS	APOPTOSIS	COLORECTAL_CANCER	PHOSPHATIDYLINOSITOL_SIGNALING_SYSTEM	ACUTE_MYELOID_LEUKEMIA	GAP_JUNCTION	INOSITOL_PHOSPHATE_METABOLISM	MELANOGENESIS	PATHOGENIC_ESCHERICHIA_COLI_INFECTION	MTOR_SIGNALING_PATHWAY	SMALL_CELL_LUNG_CANCER	THYROID_CANCER	AMYOTROPHIC_LATERAL_SCLEROSIS_ALS	ADIPOCYTOKINE_SIGNALING_PATHWAY	ALZHEIMERS_DISEASE	EPITHELIAL_CELL_SIGNALING_IN_HELICOBACTER_PYLORI_INFECTION	SPLICEOSOME	RIBOSOME	LONG_TERM_DEPRESSION	LEUKOCYTE_TRANSENDOTHELIAL_MIGRATION	LEISHMANIA_INFECTION	P53_SIGNALING_PATHWAY	UBIQUITIN_MEDIATED_PROTEOLYSIS	PURINE_METABOLISM	CYTOKINE_CYTOKINE_RECEPTOR_INTERACTION	PYRIMIDINE_METABOLISM	FRUCTOSE_AND_MANNOSE_METABOLISM	PRION_DISEASES	TGF_BETA_SIGNALING_PATHWAY	PRIMARY_IMMUNODEFICIENCY	GLYCOLYSIS_GLUCONEOGENESIS	CYTOSOLIC_DNA_SENSING_PATHWAY	OLFACTORY_TRANSDUCTION	RIG_I_LIKE_RECEPTOR_SIGNALING_PATHWAY	HEMATOPOIETIC_CELL_LINEAGE	NOD_LIKE_RECEPTOR_SIGNALING_PATHWAY	RIBOFLAVIN_METABOLISM	REGULATION_OF_AUTOPHAGY	CELL_ADHESION_MOLECULES_CAMS	PARKINSONS_DISEASE	DORSO_VENTRAL_AXIS_FORMATION	HUNTINGTONS_DISEASE	NICOTINATE_AND_NICOTINAMIDE_METABOLISM
0.005379	0.203802	-0.121952	-0.159506	-0.012303	-0.031520	-0.894641	0.070402	-0.385971	0.248323	-0.404581	-0.262098	-0.311730	-0.000903	-1.195840	-0.419289	-0.453043	-0.105838	-0.552687	-0.419310	-0.416207	-0.008731	-0.711573	-0.177400	-0.001533	-0.360801	-0.238869	0.027806	-0.501159	-0.624552	-0.029266	-0.799393	0.148411	-0.030603	-0.297605	0.000047	0.129605	0.003958	-0.530042	-0.469210	-0.000850	-0.426088	0.390647	0.013771	-0.142412	-0.000021	-0.072698	-0.030170	-0.120364	-0.129780	-0.006191	-0.075432	0.000277	-0.132981	-0.698763	-0.354071	-0.000072	0.068385	-0.000003	-0.393027	0.000104	-0.120612	0.000141	-0.001100	0.000000	-0.000789	-0.017398	-0.000686	0.014492	-0.007555	0.000140	-0.145238	0.469185	-0.000089	-0.002733	-0.001978	0.000002	-0.001033	-0.090264	-0.000012
0.278747	0.276356	-0.714081	-0.501311	-0.236013	-0.688867	0.001185	0.286435	-0.053025	0.241021	0.148969	-0.008923	-0.125688	-0.216939	-0.002189	-0.027583	-0.001466	-0.845346	0.040547	0.006975	-1.273654	-0.555638	-0.082853	-0.298514	-0.222586	-0.002494	-0.004214	-0.035037	-0.000864	-0.003051	0.001789	-0.000356	0.000411	-0.002172	-0.000344	-0.697836	-0.005480	-0.002768	0.227762	0.000016	-0.305808	0.000641	-0.069556	-0.380525	-0.369176	-0.000014	-0.007015	-0.289202	0.000189	0.254575	-0.465751	0.332836	-0.000697	-0.765550	-1.455911	0.001227	-0.181257	-0.304469	-0.000120	0.564505	-0.082555	0.000456	-0.000807	-0.924395	-0.000392	-0.000602	-0.835152	-0.665678	-0.001672	-0.220601	0.511004	-1.042826	-0.032262	-0.000236	-0.006647	-0.002362	0.000007	0.001942	-0.000007	0.000007
0.286543	-0.020205	-0.052056	0.282900	0.002956	0.069384	-0.527826	-0.757404	0.236888	-0.413842	-0.029088	-0.007499	-0.539455	0.001752	0.186783	0.001009	-0.011200	-0.206884	0.000696	-0.170639	-0.001478	-0.227366	-0.005619	-0.002107	-0.002047	0.057528	0.222737	-0.014636	0.157884	-0.001840	-0.199641	-0.000812	0.002108	-0.000580	0.386983	0.000025	-0.008464	-0.046006	-0.008105	-0.000134	-0.196368	0.002833	-0.382723	-0.010302	-0.174184	0.521135	-0.004037	0.000019	-0.001882	0.000274	0.003114	-0.000043	-0.031580	0.000003	-0.000005	-0.005292	0.546334	-0.000006	0.000001	0.000164	-0.000052	-0.003086	-0.000035	0.341065	-0.000602	0.604309	-0.001713	0.000170	0.257469	0.000652	-0.000707	-0.000010	-0.001372	0.108138	-0.004220	-0.001972	-0.000030	-0.001325	0.000012	-0.000005
0.590496	0.328391	0.534136	0.652880	0.350699	0.434128	0.606886	0.420190	0.002132	-0.707983	-0.516228	0.624177	0.721266	0.559712	0.687590	-0.003690	-0.002086	0.001729	-0.003438	-0.003533	0.969234	0.469261	0.001853	-0.116493	0.703155	-0.002331	0.007750	0.735488	-0.010616	-0.000067	0.203578	0.000260	0.854421	0.000241	-0.006730	0.056030	0.959131	-0.001417	0.437549	0.000650	0.009738	0.001863	-0.037630	0.006171	0.000003	0.000008	0.188214	0.000178	-0.000162	0.000424	-0.005260	-0.005319	-0.000029	-0.000022	-0.000022	0.010418	-0.000194	0.000440	0.000006	-0.000362	0.000053	-0.002536	-0.000036	0.039593	0.000043	-0.000154	0.000228	-0.000731	0.682821	0.001344	0.902278	0.000012	0.827137	-0.000240	0.001575	0.000726	0.000001	-0.000941	-0.000021	-0.000016
0.055809	-0.088165	-0.082172	-0.017228	-0.062064	-0.006464	-0.011866	0.034669	0.010823	-0.012237	1.431410	0.136461	-0.000828	-0.198391	0.001785	0.677263	-0.003367	-0.000312	-0.002149	-0.002017	0.005552	-0.001120	-0.000516	1.308226	0.001180	1.308288	-0.000930	0.021317	-0.002767	0.007316	0.007294	-0.002225	-0.010816	-0.003548	0.061420	-0.000058	-0.005670	-0.000932	-0.008462	-0.005648	0.809925	-0.002827	0.959527	0.492710	-0.000002	-0.000004	-0.002693	0.000576	-0.002173	0.000404	1.027587	-0.000043	0.000011	-0.000018	-0.035950	-0.000700	0.449249	-0.000009	1.634295	-0.193989	-0.000196	-0.001891	-0.000293	0.994803	0.000445	-0.000101	-0.002347	2.318630	0.890992	-0.004895	0.439731	-0.357259	0.216226	1.064695	-0.009826	-0.000406	0.000010	-0.001332	-0.305358	0.000018
0.238878	-0.388417	0.186700	-0.264536	0.154645	0.007239	-0.003024	0.143993	0.338261	0.024805	-0.136758	-0.202457	-0.161920	0.294814	0.001046	0.319106	-0.575984	0.001261	-0.472838	0.006455	0.094513	-0.454421	-0.228903	0.651916	0.394082	-0.251083	0.064080	-0.573305	-0.405458	-0.014060	-0.409671	-0.409891	-0.553637	-0.002708	-0.180040	-0.000274	-0.481966	-0.004768	-0.005093	0.790981	0.009556	-0.000934	-0.044610	0.025464	0.737961	-0.000004	-0.004149	-0.000737	-0.000065	-0.305277	0.003233	0.378711	0.440691	0.000009	0.000003	-0.006157	-0.000361	0.000009	0.000013	-0.000083	0.000004	-0.002321	-0.000298	0.047390	-0.000835	0.000222	0.000551	0.000451	0.011952	-0.000648	0.001920	0.000011	-0.004993	0.042056	0.001718	-0.000427	0.006412	0.000113	0.000011	0.000004
0.507032	0.349797	0.513150	0.349492	0.376158	0.451500	0.211308	-0.034634	-0.000884	0.273248	-0.036783	0.245927	0.481658	0.689935	0.034849	0.313477	0.484590	0.298501	-0.170459	0.835082	-0.006815	0.812662	0.422312	0.019631	0.822080	0.001151	0.395930	0.586203	-0.006015	0.001431	0.635574	0.795202	0.852274	-0.001202	-0.004116	0.060496	0.841306	0.679079	-0.002576	0.000078	0.933058	0.001807	0.801870	0.842902	0.000008	-0.000014	0.920672	-0.000796	-0.000042	-0.000257	0.002546	-0.000004	0.819394	0.000007	-0.000000	0.146982	0.000076	0.398127	-0.000011	-0.000484	0.000147	0.817156	-0.000038	0.732029	0.180701	-0.000738	-0.002962	0.000294	-0.001970	-0.010534	-0.001104	-0.000014	-0.000928	0.000203	0.989556	-0.002179	1.132817	1.121153	0.000008	0.000009
-0.176102	0.175029	0.583716	0.726017	0.534125	0.329480	0.382732	0.406731	0.322057	0.412762	-0.048610	0.825520	0.550715	0.632921	0.000126	0.713656	0.622325	0.478698	0.684160	0.405980	-0.008951	-0.003774	0.783985	0.270682	0.701325	0.720720	-0.084427	0.724184	0.325443	0.791055	-0.003166	0.884109	0.787785	-0.000881	0.677518	0.261471	0.804459	-0.002767	0.001013	0.787048	0.008811	0.871848	0.514111	-0.008842	0.572568	-0.000025	0.000452	-0.000778	0.001871	-0.000113	-0.002266	-0.000003	0.000145	-0.000010	0.000014	0.915256	-0.000235	-0.000004	-0.000015	-0.000058	-0.000252	0.211053	-0.000525	-0.004154	0.000440	-0.000099	0.243371	-0.000026	0.001530	-0.000839	-0.001831	-0.000017	-0.002475	0.115144	-0.008383	0.238804	-0.000012	0.094140	0.000000	0.000000
1.782713	4.543369	3.374349	2.919544	2.467294	3.535159	4.335984	2.609202	2.417212	3.340461	3.495303	1.146825	1.457756	2.757525	4.748471	2.707796	4.203869	3.005743	4.542361	4.966714	3.028700	3.498748	1.143007	1.717031	3.064543	1.758616	4.327998	2.156655	4.871125	0.734439	4.142070	0.930718	2.082110	0.197965	2.868786	1.078021	1.610688	0.484755	3.358123	1.205055	2.033804	1.007996	2.557041	2.144019	2.105409	0.065633	0.089275	0.000528	0.677262	3.809701	0.044213	3.636040	1.451121	0.000016	0.000008	0.811698	0.005175	1.095756	0.000998	-0.000044	0.266485	-0.000018	0.016805	0.255247	0.575994	0.120027	-0.001373	-0.000795	0.000811	0.001301	0.045459	0.000012	0.186617	0.000002	-0.001049	-0.001928	0.000008	0.007728	0.000007	0.167078
0.360392	0.601753	0.490934	-0.091547	-0.068412	0.359913	0.008404	-0.001370	-0.004915	0.627164	-0.000773	-0.000269	-0.119192	0.000488	-0.002908	-0.000810	-0.010659	-0.003046	0.000013	-0.005519	0.005030	0.520535	-0.006388	0.474679	0.000411	-0.002279	0.085623	-0.014482	0.594541	-0.001206	-0.003971	-0.000690	-0.002346	0.825833	-0.003171	-0.000267	-0.010356	0.590521	-0.010724	-0.000312	-0.010512	0.000271	0.623598	-0.010856	0.000020	-0.000014	0.004631	-0.000160	0.001498	0.000360	-0.006428	0.000032	0.682738	-0.000005	0.000000	-0.003938	0.000146	0.000155	0.000001	-0.000295	-0.000106	0.001151	-0.002874	0.000540	0.000276	-0.000654	-0.001919	-0.000161	0.000081	0.095368	0.039634	-0.000012	0.041450	0.000232	0.003688	-0.002326	0.000014	-0.001901	0.000015	-0.000020
0.265403	-0.374151	-0.385680	-0.035448	-0.045549	-0.083213	0.002565	0.004727	0.392906	-0.746636	-0.035905	-0.039540	-0.000818	0.000386	-0.002274	-0.000887	0.002351	0.000376	-0.004457	-0.003036	0.030956	-0.003242	-0.000688	-0.260467	-0.001278	0.000007	-0.000542	-0.014992	0.003292	0.000427	-0.009796	-0.001290	-0.008354	-0.003072	-0.005192	0.002352	0.002500	-0.020138	0.004450	-0.000140	0.266670	-0.002066	-0.019015	0.110249	-0.000060	-0.000005	0.360358	-0.000570	0.001167	0.373434	0.005693	0.000041	-0.000749	-0.000008	-0.000011	-0.002229	0.000540	-0.000012	0.000003	-0.000176	0.857378	0.001343	0.778939	-0.000148	-0.000002	0.000605	0.194376	0.000439	0.001230	0.003817	0.001784	0.000005	0.282374	-0.000134	0.166130	0.001228	0.000005	-0.001927	0.000013	0.910719
0.289496	0.305579	0.450778	0.010053	-0.012039	-0.001268	0.553296	-0.003362	0.000696	-0.026197	0.724727	0.002887	0.002522	-0.001604	0.687529	-0.000789	0.656843	0.000803	0.738034	0.681373	-0.010287	-0.018129	-0.008957	0.003037	-0.001593	-0.000155	0.612103	-0.009316	0.726979	0.000431	0.842284	-0.002564	0.003458	-0.001087	0.159194	0.000110	-0.004303	0.410200	0.685608	0.000145	0.906885	-0.001054	-0.003240	0.911493	-0.000151	0.000016	0.006680	-0.000434	-0.001095	0.785699	0.002879	0.768761	0.114745	-0.000006	-0.000020	0.438432	-0.000324	0.038735	-0.000012	-0.000016	0.000038	0.001486	-0.001320	0.001750	0.374521	-0.000616	0.000180	-0.000198	0.762684	0.000250	0.001600	0.000001	0.003069	0.000013	-0.005649	-0.000803	-0.000016	-0.000433	0.000017	0.000012
1.174193	0.684216	0.592424	0.510478	0.654300	0.927462	0.095712	0.618901	0.766869	0.480188	0.544412	0.587630	0.117584	1.014985	-0.003080	0.737695	0.844040	0.000602	1.000937	0.227391	0.171807	0.000265	0.893771	0.057374	0.870229	1.181066	-0.005177	0.656185	0.446099	0.889027	0.005349	0.875758	0.882493	-0.000924	0.942631	0.000110	0.930574	-0.002017	-0.002538	1.011582	-0.005597	1.227656	0.143080	-0.000177	0.372866	0.000002	0.882818	0.226769	1.032871	0.000470	0.260175	0.000002	-0.000965	0.000005	-0.000001	0.987735	-0.000057	-0.000009	-0.000014	0.000008	-0.000174	0.000367	0.000107	0.376314	0.541768	0.187745	-0.002742	-0.000401	-0.000736	0.003449	-0.003188	0.000008	-0.006880	0.001078	-0.001491	-0.001779	-0.000019	0.410417	-0.000012	0.000008
0.609454	0.540433	0.043812	0.917331	0.743648	1.101818	0.963683	0.521003	-0.119387	0.827035	0.732331	0.000418	0.571455	0.346252	0.047454	0.932101	-0.002558	0.002527	0.917199	-0.002666	-0.003714	0.428614	0.573392	-0.030298	0.248121	0.001884	-0.004436	0.581096	0.006463	-0.001261	0.130700	0.230482	0.244722	-0.002498	1.142751	0.000145	0.306893	0.722168	0.003403	0.000475	-0.054809	0.001608	0.377829	-0.017173	-0.000001	-0.000011	0.139566	-0.000340	0.128927	-0.000464	0.291482	-0.000034	0.518042	-0.000016	0.000007	0.005970	-0.000057	0.034882	0.000005	0.003629	0.000085	0.366027	-0.000099	0.031368	0.001030	-0.000793	1.122138	0.000177	0.001700	0.712534	0.764771	0.000013	0.001778	0.055533	0.070927	0.550741	-0.007850	0.429141	-0.000002	0.000000
0.035429	0.863331	0.028922	-0.095813	-0.031030	-0.009344	0.001408	-0.201889	-0.004701	1.020912	0.274078	-0.000299	0.356635	-0.006364	-0.042657	0.434442	0.002591	1.367366	-0.001808	0.355741	1.199612	0.001515	0.002607	-0.092090	-0.006032	0.000719	-0.011010	-0.032633	0.001903	0.001006	-0.000508	-0.002533	-0.003941	0.313435	-0.009599	-0.000211	0.004600	-0.010123	-0.006631	-0.000597	0.124759	0.000277	-0.006186	-0.004741	-0.004035	-0.000812	-0.009425	0.000366	-0.002491	1.066107	-0.004030	-0.000068	0.427849	0.000010	-0.000002	-0.008297	-0.000862	0.004658	-0.000000	-0.000181	0.187420	-0.001868	-0.000812	-0.012590	-0.000733	-0.001065	0.001560	-0.000129	-0.000948	0.000169	-0.001232	-0.000002	0.149459	-0.000168	-0.005743	0.000004	-0.000004	-0.000932	-0.000008	0.138764
0.478679	0.016210	-0.222826	0.413849	0.001550	0.009948	-0.002748	0.342842	-0.028807	-0.003365	-0.010711	-0.000431	0.590482	0.010524	0.542570	-0.003390	0.002954	0.001065	-0.004513	-0.005280	0.039697	0.030420	0.651970	-0.014098	0.008534	-0.064241	0.001095	0.012922	0.001992	0.001298	-0.004394	0.099146	-0.006674	0.149313	0.003752	-0.000154	-0.006993	-0.002712	0.022878	-0.020771	0.657888	0.001320	0.000298	0.631184	-0.000126	0.547872	0.762887	0.157605	0.001489	-0.000293	1.461859	-0.000052	0.000328	0.000000	-0.000001	-0.004408	0.469469	0.720681	0.041436	0.000269	-0.000153	-0.000200	-0.000238	-0.001730	0.000820	0.220714	-0.002644	0.000256	-0.002367	0.611289	0.346361	-0.000019	0.227471	0.000051	1.525901	0.000830	-0.000018	-0.000443	0.000015	0.000009
0.940452	0.642625	0.011226	0.188794	0.332508	-0.000871	0.010516	0.113149	0.291248	0.466827	0.398713	0.000117	0.634034	-0.000096	0.000515	0.000572	0.494302	0.553349	0.000212	0.580250	0.014053	-0.001416	-0.004948	0.642279	0.000007	0.858279	-0.010290	0.458364	0.009215	-0.001771	-0.004643	-0.001422	0.001134	0.252671	-0.001053	0.000094	0.009570	-0.006323	-0.002258	0.005279	0.013229	-0.001993	0.002914	0.008718	0.000359	-0.000017	-0.003679	-0.000336	0.001758	0.000481	-0.008907	-0.000028	-0.003062	-0.000005	0.000005	-0.003035	-0.000655	0.000014	-0.000006	0.001897	0.447210	0.001494	0.392012	-0.002497	0.181874	0.000317	0.000563	-0.000758	0.002022	-0.008052	0.003606	-0.000015	-0.002699	-0.000136	0.005230	-0.000108	0.000004	0.061656	-0.000011	0.367885
-0.015825	0.157066	-0.389768	0.564236	-0.529416	0.635175	-0.007422	-0.005392	0.609623	-0.008199	0.000550	-0.000538	-0.379682	-0.079899	0.685032	-0.145236	-0.001136	-0.002731	-0.000439	-0.002116	0.263900	-0.003511	-0.009389	0.125852	-0.003654	0.126961	0.701855	-0.294978	-0.012057	0.000760	-0.006605	0.000455	-0.000827	0.000631	0.765723	-0.000226	-0.006534	-0.006113	0.221985	0.000240	0.000711	-0.000997	-0.002163	0.002988	-0.000031	0.733018	-0.006845	-0.000619	-0.001570	-0.000171	-0.001363	0.000038	0.000384	-0.000005	0.000000	-0.003505	0.738082	0.000006	-0.000003	0.000052	-0.000006	-0.002296	0.074773	0.236648	0.000259	0.794602	0.002246	-0.000936	0.314919	-0.008584	0.401997	-0.000001	-0.000491	0.386025	0.000307	0.000170	0.000003	-0.001933	-0.000000	0.008508
-0.002390	-0.005984	-0.087393	-0.035462	-0.209713	-0.154108	-0.141936	-0.004807	-0.011122	0.306269	-0.004386	-0.120391	-0.000358	-0.000405	-0.159482	-0.000578	-0.007093	-0.001276	0.000426	-0.002917	0.002099	0.000372	0.002298	0.505154	-0.001624	0.001253	0.003075	-0.021295	0.004392	0.000612	-0.008173	0.000963	0.000851	-0.002415	0.001510	0.000095	-0.000630	-0.002868	-0.009118	-0.000752	-0.001271	-0.002533	0.001107	-0.003871	-0.000033	-0.000004	-0.003873	-0.000711	-0.000269	-0.000138	-0.004600	0.000023	-0.000237	-0.000008	-0.000016	-0.004381	-0.000029	-0.000000	0.689019	-0.000282	0.000015	0.001069	0.000157	-0.001923	-0.000051	0.000329	-0.000165	-0.000055	-0.001085	-0.007600	-0.002427	-0.000006	0.001195	0.000065	0.000332	-0.000454	0.000007	0.000629	-0.000003	0.000003
-0.285174	0.018343	0.154656	0.198083	0.159204	-0.098515	0.209395	0.228842	0.013463	0.235094	0.015365	0.453260	0.189625	0.191023	-0.562440	0.287654	0.018692	0.304210	0.150097	0.103493	0.367780	-0.356980	0.486424	-0.142374	0.240937	0.039062	-0.471245	0.285561	0.214535	0.501419	-0.446175	0.486172	0.371428	-0.001745	0.306994	-0.231435	0.203924	-0.000869	-0.268286	0.286603	-0.044922	0.550229	0.389907	-0.061456	0.502092	-0.000022	-0.173474	-0.000049	0.524265	-0.346381	-0.008067	-0.292641	-0.001086	-0.000007	0.000005	0.594646	0.000304	0.000006	-0.000019	-0.529311	-0.000264	-0.229553	0.000177	0.001748	0.589662	-0.000297	-0.298896	-0.000329	-0.001816	0.007575	0.001839	-0.341617	-0.000844	0.000032	-0.004611	-0.001486	-0.000007	0.539550	-0.325988	-0.000004
0.502163	0.355811	-0.064535	-0.115663	-0.006970	-0.011812	-0.005381	0.222323	-0.007087	-0.137152	0.000021	-0.000796	0.258574	-0.001820	-0.001856	0.324546	-0.009434	0.045890	0.001660	0.223992	0.036550	-0.002304	-0.006273	-0.034580	-0.002426	0.000457	-0.005970	-0.023051	-0.002203	0.001645	-0.010077	-0.011161	-0.004975	0.000072	0.001538	0.000132	-0.011215	-0.007564	0.081147	0.000156	0.655794	0.001346	-0.003090	0.285437	-0.000019	-0.000014	-0.000193	0.000042	-0.002032	0.000067	-0.001476	-0.000017	0.000233	0.000003	0.000014	0.004168	0.000073	0.000004	-0.000010	0.000205	-0.000012	-0.002121	0.000356	0.600527	-0.000006	0.000043	-0.001015	-0.000302	0.085561	0.005498	0.092600	0.000017	0.273395	-0.000166	0.000977	0.001412	-0.000258	0.000962	-0.000005	-0.000007
0.133945	0.034457	1.735341	-0.027823	0.005956	-0.001305	0.000438	1.374702	0.002646	1.504982	1.620869	-0.000626	0.015963	0.001868	0.000739	-0.004577	-0.009747	-0.003137	1.662760	-0.012071	-0.001753	0.000918	1.771635	-0.021679	0.013190	0.000417	1.680835	0.000279	-0.003659	-0.002744	1.905834	0.008295	0.012151	0.000794	-0.002519	0.000132	0.004954	0.003033	-0.001150	0.000283	-0.011246	-0.002483	0.005030	-0.006669	2.123217	-0.000023	-0.007497	0.000017	0.000390	-0.000013	-0.001488	-0.000043	0.034939	0.000005	-0.000002	-0.003102	0.000079	-0.000006	-0.000019	-0.000374	-0.000120	0.003311	-0.000760	-0.001899	-0.000007	0.000588	-0.000589	-0.000685	-0.000540	1.835870	-0.001805	0.000017	-0.002061	-0.000123	-0.006129	0.020287	-0.000026	0.003093	0.000007	0.000018
0.015861	0.569586	0.628330	0.004579	-0.010556	-0.010610	0.624798	0.657951	-0.003406	0.741791	0.005961	0.000056	-0.004923	0.001040	-0.000877	0.001452	-0.001801	0.694178	0.000134	-0.001823	0.712604	0.581827	-0.003366	0.044001	-0.001526	0.002632	0.114068	-0.029554	0.005255	-0.001952	-0.006507	-0.002766	0.005364	0.001090	0.006333	-0.000258	-0.009001	-0.002986	-0.000587	-0.000007	-0.007275	0.001796	0.001168	-0.002751	-0.000042	-0.000020	0.002036	-0.000459	-0.001202	-0.000712	0.128675	0.000019	-0.000644	-0.000019	0.000011	-0.004120	0.000224	-0.000013	0.000016	-0.000143	-0.000155	-0.002457	0.000429	0.588924	0.000530	-0.000093	0.001847	-0.000833	-0.002278	0.003977	-0.000592	-0.000008	0.233778	0.465769	-0.007421	-0.000666	0.000010	0.002091	-0.000004	-0.000017
0.006628	0.628428	1.390679	1.345563	-0.007999	1.369082	1.359335	0.004132	0.511328	0.000676	-0.001359	1.460448	0.425964	0.000025	1.434287	0.001137	0.507001	-0.001315	-0.002458	-0.000704	0.235311	-0.000776	-0.001677	-0.042007	0.001587	0.000132	-0.007607	-0.026875	-0.006959	-0.002097	-0.002153	-0.001082	-0.001904	-0.000740	-0.006973	0.000120	-0.007475	-0.009613	0.141899	-0.000218	-0.000298	-0.000394	-0.005552	-0.001190	-0.000011	-0.000017	-0.005776	-0.000383	0.002077	-0.000584	-0.007533	-0.000059	0.505086	0.000009	-0.000003	0.004797	-0.000035	0.000014	-0.000018	0.000070	0.000091	0.000234	0.000117	0.001436	0.000652	-0.000350	-0.001882	0.000521	0.245444	-0.002503	0.123391	0.000015	0.000764	-0.000106	-0.008541	-0.001560	0.000017	0.001278	0.000011	-0.000013
-0.307875	-0.309917	-0.174766	-0.020351	-0.300317	-0.276129	0.007117	-0.440100	0.013169	-0.035259	-0.253967	-0.000540	0.030677	-0.001327	-0.084578	-0.001516	-0.004764	-0.503078	-0.001625	-0.004202	-0.111633	0.006726	-0.005945	-0.018857	-0.001860	-0.001005	-0.009165	-0.007540	-0.007775	0.001671	-0.007673	-0.000672	-0.002068	-0.001910	-0.002776	0.022638	0.000445	-0.005091	-0.002214	-0.000072	0.537933	-0.001663	0.003215	0.533462	0.000027	0.000006	0.003260	-0.000154	-0.001894	-0.000479	-0.006982	-0.000047	0.000388	0.000016	-0.000009	0.001277	-0.000241	0.000016	0.000017	-0.001009	-0.000088	0.000111	-0.000227	0.001760	0.000224	-0.000338	0.275720	-0.000052	0.313472	0.000841	-0.000133	0.000005	0.001907	-0.000065	0.006936	0.009266	-0.000014	-0.000248	-0.000015	0.000009
-0.175988	-0.181127	-0.039091	-0.350174	0.001406	-0.226583	-0.169086	0.000765	-0.001287	-0.010723	-0.163567	-0.000972	-0.002238	-0.000244	-0.215857	0.420242	-0.000693	-0.003173	-0.109246	-0.011869	-0.006479	0.446477	-0.002185	-0.036947	0.001301	-0.003459	0.001219	0.010032	0.001003	-0.001001	0.017329	-0.002067	0.005171	-0.002788	-0.006744	0.000073	0.005684	-0.005550	-0.000861	0.000442	0.001717	0.000248	-0.001297	-0.002286	0.000047	0.000009	-0.005064	0.000600	0.001167	-0.000306	-0.003835	-0.000051	-0.000601	-0.000007	0.000012	-0.003811	-0.000183	-0.000021	0.162347	0.000000	0.000000	-0.003122	-0.000292	0.002090	-0.000096	-0.000272	-0.001733	0.000222	-0.001543	0.006698	0.000780	0.000000	-0.000995	0.000012	-0.005250	0.000582	0.000008	0.001137	-0.000000	0.000009
0.250919	0.816514	-0.028952	0.011737	-0.001593	-0.012210	0.009647	-0.006877	-0.000409	-0.009647	-0.025485	-0.000346	-0.000274	0.003189	-0.000903	-0.006309	-0.003958	-0.002213	-0.005559	0.004668	0.004557	0.006026	0.000429	-0.018254	-0.000040	-0.000843	-0.000370	-0.017111	0.003748	-0.000444	0.007072	-0.001026	0.008643	-0.000228	-0.002034	0.000105	-0.000588	0.001152	0.010022	0.000425	-0.000988	-0.000523	0.003034	0.003790	-0.000011	0.000006	-0.000601	0.000380	0.001531	0.000603	0.000587	0.000057	0.000871	-0.000010	-0.000009	-0.001926	-0.000149	-0.000004	0.000009	-0.000042	0.000037	0.092329	-0.000387	-0.002712	0.000522	0.000293	0.131777	-0.000537	0.004153	-0.006903	0.001327	0.000006	0.002906	-0.000117	0.001106	0.267074	-0.000017	0.026039	0.000018	0.000002
-0.134276	0.532746	0.665742	-0.081061	0.636223	0.674910	0.662471	0.733779	0.767586	-0.056856	-0.033524	0.789797	0.713281	0.732567	-0.094321	0.791112	-0.074287	0.713393	-0.042335	0.824558	0.705793	-0.105160	0.887153	-0.024421	0.770315	0.861212	-0.077655	-0.012652	0.874500	0.879429	-0.043935	0.892412	0.815497	0.831911	-0.008426	0.822998	0.831390	0.001244	0.759752	0.949507	0.001798	0.980686	-0.004747	-0.000251	0.000045	0.000000	0.965454	0.913001	0.001140	-0.004690	0.974680	-0.001410	-0.000767	0.000001	0.000000	0.000990	-0.000020	0.000010	-0.000009	-0.000507	0.000128	0.000828	0.000193	0.000558	0.000015	0.000180	-0.000622	-0.000190	-0.000556	0.006037	-0.001342	-0.000004	0.001313	0.000145	-0.005223	0.000605	-0.000018	-0.001518	0.000004	-0.000009
0.014218	-0.084319	-0.059942	-0.020392	-0.004688	0.001053	-0.002684	0.010821	-0.000802	-0.032003	-0.000193	-0.002466	-0.000055	-0.008342	-0.002624	-0.001300	-0.009264	-0.000132	0.024589	0.002570	-0.001614	-0.001014	-0.008608	0.010004	-0.007826	-0.002237	-0.006557	0.008392	0.000244	-0.002413	0.017142	0.000127	-0.004154	-0.000345	0.005551	0.000110	-0.001087	-0.001176	-0.003217	-0.002904	0.000922	0.000570	-0.006093	-0.003300	-0.000070	0.000020	-0.003382	-0.000036	0.001328	-0.000428	-0.002142	0.000004	0.000099	0.000003	0.000012	0.002995	-0.000250	0.000004	-0.000004	-0.000121	-0.000009	-0.002301	0.000484	-0.001126	-0.000602	0.000063	-0.002456	0.000336	-0.001144	-0.008520	-0.000233	-0.000001	0.001623	-0.000107	0.011363	0.000855	0.000009	-0.001298	0.000009	-0.000010
-0.038092	-0.014736	0.007522	0.025179	0.495027	0.000624	0.003471	-0.007119	-0.004213	0.006223	0.607573	0.000467	-0.002345	-0.000421	-0.000919	-0.007312	-0.008708	-0.001740	0.000166	-0.004419	-0.006408	0.001973	0.006654	0.587668	0.681073	0.664066	0.003638	-0.006172	0.000336	0.001091	-0.000061	-0.000890	-0.002185	0.000891	-0.008968	-0.000213	0.007118	-0.006153	-0.005968	0.000576	-0.009921	0.000789	0.348599	-0.011492	0.000047	0.000003	-0.004437	0.656261	0.001514	-0.000651	0.005869	0.000049	0.000064	-0.000014	0.000005	-0.000154	-0.000257	0.000019	0.698601	0.000067	0.014225	0.106191	0.000483	0.001540	-0.000063	-0.000632	0.001297	0.000332	-0.000908	-0.005153	0.002980	0.000014	-0.001201	0.000154	-0.005849	0.001787	-0.000021	-0.001367	0.000017	0.042171
0.325267	-0.030359	-0.039118	-0.021309	-0.001644	0.008989	-0.000936	-0.005446	0.000313	-0.001287	-0.000839	-0.000671	0.001049	-0.000761	0.005344	-0.003772	0.013211	0.000371	0.001351	0.003100	0.429400	0.011882	0.000433	-0.005729	-0.000104	0.001771	0.003451	0.000062	-0.002126	0.001284	-0.001822	0.000365	-0.008411	0.001942	0.005504	-0.000241	0.006726	0.003351	0.006588	0.000482	0.000469	0.001064	0.004871	0.004783	0.000030	0.000346	-0.002112	0.000645	-0.002270	0.000405	-0.000837	0.000038	-0.000173	0.000018	-0.000003	-0.004444	-0.000412	-0.000007	0.000001	-0.000309	0.000175	0.002074	-0.000770	0.002987	0.001394	-0.000383	-0.000605	0.000122	0.458071	0.004984	0.471497	0.000003	0.000301	0.000271	-0.005236	-0.001510	0.000013	0.001406	-0.000007	-0.000007
0.094835	-0.032325	0.589193	0.541875	-0.008573	0.579087	0.603830	0.002082	-0.003853	-0.005155	0.014094	0.609774	-0.150261	-0.002588	0.654812	0.002612	-0.008862	0.000919	0.000723	-0.008296	0.005261	0.006484	0.005816	0.234943	0.000903	-0.013519	0.004281	-0.001446	-0.002681	0.000372	0.002909	0.000360	-0.001238	-0.000204	0.000913	0.000127	-0.000158	0.001893	-0.002179	-0.000458	-0.007050	-0.001331	0.006525	-0.002935	0.000039	0.000008	0.003160	0.000383	-0.001295	0.000411	0.004206	-0.000029	-0.004053	-0.000001	0.000011	0.007378	-0.000096	-0.000020	0.209459	0.000062	0.000027	-0.001174	-0.000262	-0.001730	-0.000395	0.000054	-0.001428	0.000266	0.002220	-0.003164	0.000833	-0.000015	-0.000292	-0.000179	-0.000433	-0.000955	0.000011	0.001917	-0.000020	-0.000012
0.002449	0.000442	0.011755	1.244107	0.003674	1.344249	0.004132	0.008205	-0.004528	0.006347	1.921391	-0.000854	-0.000450	0.000940	-0.002411	1.498336	0.005318	0.002144	1.579153	0.006284	0.005255	0.003624	-0.000124	0.128111	-0.001378	1.238705	-0.002713	0.006395	0.012383	-0.000452	0.003540	-0.000682	-0.002897	0.002024	1.599366	0.000162	0.006912	0.011631	0.004150	0.000075	0.009414	0.002206	0.001927	0.004555	0.000025	0.000008	0.006150	0.000489	-0.000917	-0.000720	-0.002635	0.092544	0.026716	-0.000017	0.000006	0.012743	-0.000040	0.000013	0.000016	-0.000109	-0.000154	0.000946	-0.000626	0.000230	-0.000161	-0.000279	0.000955	-0.000680	-0.000906	-0.005873	-0.001193	-0.000011	0.000502	-0.000009	0.006316	-0.001304	0.000015	-0.001755	-0.000007	-0.000016
0.193807	0.789761	-0.013742	0.009286	-0.010613	-0.008168	0.002832	0.003587	-0.001974	0.003569	-0.000272	0.000078	0.001702	-0.002442	0.001147	-0.000889	0.003099	0.000580	0.001764	0.003595	0.006327	0.002345	-0.001019	-0.013612	-0.000785	0.001542	0.011591	0.022089	0.001840	-0.001114	-0.002484	-0.000657	-0.004842	-0.002745	-0.005148	0.000159	0.003292	0.005034	0.006585	0.000326	0.001034	0.000523	-0.008489	0.001059	0.000052	-0.000009	-0.003841	0.000244	0.001742	0.000600	0.005757	0.000035	0.000159	-0.000017	-0.000010	-0.001383	0.000171	-0.000007	0.000018	-0.000136	0.000128	-0.000194	-0.000568	0.001177	0.000404	-0.000034	-0.002298	0.000463	-0.001820	-0.004571	0.001001	0.000002	0.002621	0.000172	-0.004682	-0.002070	-0.000012	-0.000759	-0.000009	0.000008
