-0.000050	-0.001125	-0.000927	-0.000339	-0.000416	-0.000220	-0.000641	-0.000319	0.001641	-0.001079	-0.000427	-0.000382	-0.000355	-0.000322	-0.000315	-0.000217	-0.000164	-0.000051	-0.001273	-0.001133	-0.001012	-0.000988	-0.000988	-0.000868	-0.000849	-0.000513	-0.000759	-0.000644	-0.000102	0.000036	-0.004121	-0.004051	-0.004007	0.006693	0.001338	-0.000256	-0.000231	-0.000208	-0.000196	-0.000172	0.000145	0.000234	0.000288	0.000373	0.000413	-0.000841	-0.000693	-0.000557	-0.003543	-0.003225
-0.000538	-0.000154	0.000050	-0.000822	-0.000896	-0.000697	-0.000610	-0.000288	0.000213	-0.002499	-0.001857	-0.001812	-0.001786	-0.001753	-0.001745	-0.000187	-0.001596	-0.001483	0.002169	-0.002554	-0.002435	-0.002412	-0.002412	-0.002294	-0.002275	-0.000483	-0.002186	-0.002071	-0.001528	-0.001390	-0.005544	-0.005473	-0.005428	0.005268	-0.000090	-0.001685	-0.001661	-0.001637	-0.001625	-0.001601	-0.001286	-0.001197	-0.001143	-0.001059	-0.001019	-0.002270	-0.002124	-0.001988	-0.004976	-0.004666
-0.000534	-0.000140	0.000028	-0.000814	-0.000900	-0.000700	-0.000624	-0.000290	0.000248	-0.002497	-0.001868	-0.001821	-0.001795	-0.001761	-0.001753	-0.000199	-0.001599	-0.001484	0.002106	-0.002595	-0.002462	-0.002436	-0.002436	-0.002309	-0.002289	-0.000497	-0.002195	-0.002076	-0.001548	-0.001403	-0.005524	-0.005465	-0.005426	0.005295	-0.000078	-0.001678	-0.001656	-0.001634	-0.001623	-0.001601	-0.001292	-0.001203	-0.001148	-0.001063	-0.001022	-0.002284	-0.002131	-0.001991	-0.004909	-0.004524
-0.000037	-0.001047	-0.000809	-0.000181	-0.000329	-0.000149	-0.000891	-0.000609	0.001519	-0.001136	-0.000625	-0.000581	-0.000559	-0.000531	-0.000525	-0.000495	-0.000398	-0.000302	-0.001453	-0.001338	-0.001236	-0.001215	-0.001215	-0.001113	-0.001096	0.000661	-0.001019	-0.000919	-0.000342	-0.000223	-0.004152	-0.004109	-0.004079	0.006631	0.001236	-0.000373	-0.000356	-0.000339	-0.000331	-0.000314	-0.000070	0.000001	0.000045	0.000114	0.000148	-0.001062	-0.000940	-0.000826	-0.003529	-0.003137
-0.000054	-0.001007	-0.000270	0.000329	-0.000025	-0.000153	-0.000369	-0.000130	0.002534	-0.000017	0.000419	0.000451	0.000469	0.000493	0.000498	0.000030	0.000607	0.000692	-0.000372	-0.000284	-0.000206	-0.000190	-0.000190	-0.000108	-0.000095	0.000168	-0.000030	0.000056	0.000662	0.000764	-0.003028	-0.002983	-0.002953	0.007717	0.002284	0.000663	0.000678	0.000693	0.000701	-0.000742	-0.000535	-0.000475	-0.000437	-0.000377	-0.000348	-0.000063	0.000038	0.000134	-0.002351	-0.002050
-0.000119	-0.001070	-0.000376	0.000195	-0.000007	-0.000255	-0.000404	-0.000142	0.002417	-0.000156	0.000359	0.000396	0.000417	0.000444	0.000450	-0.000008	0.000573	0.000666	-0.000486	-0.000370	-0.000269	-0.000249	-0.000249	-0.000151	-0.000136	0.000134	-0.000062	0.000032	0.000617	0.000732	-0.003170	-0.003115	-0.003080	0.007585	0.002159	0.000542	0.000560	0.000579	0.000588	0.000607	-0.000600	-0.000529	-0.000485	-0.000416	-0.000384	-0.000132	-0.000012	0.000100	-0.002507	-0.002245
-0.000156	-0.000608	-0.000320	0.000250	-0.000001	-0.000254	-0.000641	-0.000413	0.002204	-0.000291	0.000159	0.000191	0.000209	0.000233	0.000238	0.000160	0.000345	0.000425	-0.000678	-0.000579	-0.000493	-0.000476	-0.000476	-0.000391	-0.000377	-0.000138	-0.000313	-0.000229	0.000388	0.000487	-0.003295	-0.003249	-0.003219	0.007429	0.001978	0.000352	0.000368	0.000384	0.000392	0.000408	0.000626	0.000688	-0.000732	-0.000674	-0.000645	-0.000368	-0.000264	-0.000167	-0.002627	-0.002400
