-0.000145	-0.000673	-0.000372	0.000184	-0.000017	-0.000070	-0.000693	-0.000448	0.002125	-0.000417	0.000077	0.000110	0.000130	0.000155	0.000161	0.000007	0.000275	0.000364	-0.000702	-0.000617	-0.000538	-0.000522	-0.000522	-0.000438	-0.000424	0.000007	-0.000357	-0.000267	0.000339	0.000443	-0.003435	-0.003374	-0.003337	0.007310	0.000251	-0.000213	-0.000194	-0.000176	-0.000167	-0.000149	-0.000064	0.000001	0.000041	-0.000184	-0.002413	-0.000401	-0.000294	-0.000192	-0.002765	-0.002533
-0.000092	-0.001021	-0.000302	0.000279	-0.000070	0.000002	-0.000550	-0.000312	0.002311	-0.000224	0.000238	0.000271	0.000290	0.000314	0.000319	0.000007	0.000429	0.000513	-0.000586	-0.000488	-0.000402	-0.000384	-0.000384	-0.000294	-0.000280	-0.000004	-0.000213	-0.000128	0.000482	0.000585	-0.003233	-0.003188	-0.003159	0.007507	0.000435	-0.000034	-0.000017	-0.000001	0.000007	0.000023	-0.000040	0.000022	0.000060	-0.000037	-0.002268	-0.000257	-0.000151	-0.000052	-0.002574	-0.002303
-0.000085	-0.000967	-0.000213	0.000360	-0.000037	0.000030	-0.000491	-0.000279	0.002380	-0.000089	0.000323	0.000352	0.000369	0.000391	0.000395	0.000033	0.000494	0.000569	-0.000486	-0.000403	-0.000329	-0.000314	-0.000314	-0.000236	-0.000224	0.000018	-0.000165	-0.000089	0.000543	0.000634	-0.003090	-0.003047	-0.003019	0.007623	0.000515	0.000042	0.000057	0.000072	0.000079	0.000093	0.000007	0.000062	0.000096	-0.000007	-0.002235	-0.000206	-0.000112	-0.000025	-0.002411	-0.002189
